Language model created by QuickLM on Sat Dec 21 12:16:37 EST 2019
Copyright (c) 1996-2010 Carnegie Mellon University and Alexander I. Rudnicky

The model is in standard ARPA format, designed by Doug Paul while he was at MITRE.

The code that was used to produce this language model is available in Open Source.
Please visit http://www.speech.cs.cmu.edu/tools/ for more information

The (fixed) discount mass is 0.5. The backoffs are computed using the ratio method.
This model based on a corpus of 73 sentences and 75 words

\data\
ngram 1=75
ngram 2=146
ngram 3=73

\1-grams:
-0.7782 </s> -0.3010
-0.7782 <s> -0.2218
-2.6415 ALARM -0.2218
-2.6415 ALL -0.2218
-2.6415 BACKGROUND -0.2218
-2.6415 CALENDAR -0.2218
-2.6415 CARDS -0.2218
-2.6415 CENSUS -0.2218
-2.6415 CLOCK -0.2218
-2.6415 CLOSE -0.2218
-2.6415 COCKTAILS -0.2218
-2.6415 COMPLIMENTS -0.2218
-2.6415 EARTH -0.2218
-2.6415 EIGHT -0.2218
-2.6415 EVENTS -0.2218
-2.6415 EYECANDY -0.2218
-2.6415 FAIREST -0.2218
-2.6415 FAX -0.2218
-2.6415 FIVE -0.2218
-2.6415 FORTUNE -0.2218
-2.6415 FOUR -0.2218
-2.6415 GAS -0.2218
-2.6415 GO -0.2218
-2.6415 HARDWARE -0.2218
-2.6415 HELLO -0.2218
-2.6415 HELP -0.2218
-2.6415 HIDE -0.2218
-2.6415 HISTORY -0.2218
-2.6415 HOROSCOPE -0.2218
-2.6415 IS -0.2218
-2.6415 JEOPARDY -0.2218
-2.6415 LICE -0.2218
-2.6415 LOTTERY -0.2218
-2.6415 LUCY -0.2218
-2.6415 MIRROR -0.2218
-2.6415 MODULES -0.2218
-2.6415 MOON -0.2218
-2.6415 NASA -0.2218
-2.6415 NEWSFEED -0.2218
-2.6415 NINE -0.2218
-2.6415 OF -0.2218
-2.6415 ON -0.2218
-2.6415 ONE -0.2218
-2.6415 OPEN -0.2218
-2.6415 PAGE -0.2218
-2.6415 PETFINDER -0.2218
-2.6415 PHONE -0.2218
-2.6415 PICTURES -0.2218
-2.6415 PILOTS -0.2218
-2.6415 PLEASE -0.2218
-2.6415 QUOTE -0.2218
-2.6415 SEVEN -0.2218
-2.6415 SHIPPING -0.2218
-2.6415 SHOW -0.2218
-2.6415 SIX -0.2218
-2.6415 SLEEP -0.2218
-2.6415 SOUNDMACHINE -0.2218
-2.6415 STATION -0.2218
-2.6415 STATS -0.2218
-2.6415 SUNRISE -0.2218
-2.6415 TEN -0.2218
-2.6415 THE -0.2218
-2.6415 THREE -0.2218
-2.6415 TIDES -0.2218
-2.6415 TIMER -0.2218
-2.6415 TO -0.2218
-2.6415 TRIVIA -0.2218
-2.6415 TWO -0.2218
-2.6415 UP -0.2218
-2.6415 VOICE -0.2218
-2.6415 WAKE -0.2218
-2.6415 WALL -0.2218
-2.6415 WEATHER -0.2218
-2.6415 WHO -0.2218
-2.6415 WIND -0.2218

\2-grams:
-2.1644 <s> ALARM 0.0000
-2.1644 <s> ALL 0.0000
-2.1644 <s> BACKGROUND 0.0000
-2.1644 <s> CALENDAR 0.0000
-2.1644 <s> CARDS 0.0000
-2.1644 <s> CENSUS 0.0000
-2.1644 <s> CLOCK 0.0000
-2.1644 <s> CLOSE 0.0000
-2.1644 <s> COCKTAILS 0.0000
-2.1644 <s> COMPLIMENTS 0.0000
-2.1644 <s> EARTH 0.0000
-2.1644 <s> EIGHT 0.0000
-2.1644 <s> EVENTS 0.0000
-2.1644 <s> EYECANDY 0.0000
-2.1644 <s> FAIREST 0.0000
-2.1644 <s> FAX 0.0000
-2.1644 <s> FIVE 0.0000
-2.1644 <s> FORTUNE 0.0000
-2.1644 <s> FOUR 0.0000
-2.1644 <s> GAS 0.0000
-2.1644 <s> GO 0.0000
-2.1644 <s> HARDWARE 0.0000
-2.1644 <s> HELLO 0.0000
-2.1644 <s> HELP 0.0000
-2.1644 <s> HIDE 0.0000
-2.1644 <s> HISTORY 0.0000
-2.1644 <s> HOROSCOPE 0.0000
-2.1644 <s> IS 0.0000
-2.1644 <s> JEOPARDY 0.0000
-2.1644 <s> LICE 0.0000
-2.1644 <s> LOTTERY 0.0000
-2.1644 <s> LUCY 0.0000
-2.1644 <s> MIRROR 0.0000
-2.1644 <s> MODULES 0.0000
-2.1644 <s> MOON 0.0000
-2.1644 <s> NASA 0.0000
-2.1644 <s> NEWSFEED 0.0000
-2.1644 <s> NINE 0.0000
-2.1644 <s> OF 0.0000
-2.1644 <s> ON 0.0000
-2.1644 <s> ONE 0.0000
-2.1644 <s> OPEN 0.0000
-2.1644 <s> PAGE 0.0000
-2.1644 <s> PETFINDER 0.0000
-2.1644 <s> PHONE 0.0000
-2.1644 <s> PICTURES 0.0000
-2.1644 <s> PILOTS 0.0000
-2.1644 <s> PLEASE 0.0000
-2.1644 <s> QUOTE 0.0000
-2.1644 <s> SEVEN 0.0000
-2.1644 <s> SHIPPING 0.0000
-2.1644 <s> SHOW 0.0000
-2.1644 <s> SIX 0.0000
-2.1644 <s> SLEEP 0.0000
-2.1644 <s> SOUNDMACHINE 0.0000
-2.1644 <s> STATION 0.0000
-2.1644 <s> STATS 0.0000
-2.1644 <s> SUNRISE 0.0000
-2.1644 <s> TEN 0.0000
-2.1644 <s> THE 0.0000
-2.1644 <s> THREE 0.0000
-2.1644 <s> TIDES 0.0000
-2.1644 <s> TIMER 0.0000
-2.1644 <s> TO 0.0000
-2.1644 <s> TRIVIA 0.0000
-2.1644 <s> TWO 0.0000
-2.1644 <s> UP 0.0000
-2.1644 <s> VOICE 0.0000
-2.1644 <s> WAKE 0.0000
-2.1644 <s> WALL 0.0000
-2.1644 <s> WEATHER 0.0000
-2.1644 <s> WHO 0.0000
-2.1644 <s> WIND 0.0000
-0.3010 ALARM </s> -0.3010
-0.3010 ALL </s> -0.3010
-0.3010 BACKGROUND </s> -0.3010
-0.3010 CALENDAR </s> -0.3010
-0.3010 CARDS </s> -0.3010
-0.3010 CENSUS </s> -0.3010
-0.3010 CLOCK </s> -0.3010
-0.3010 CLOSE </s> -0.3010
-0.3010 COCKTAILS </s> -0.3010
-0.3010 COMPLIMENTS </s> -0.3010
-0.3010 EARTH </s> -0.3010
-0.3010 EIGHT </s> -0.3010
-0.3010 EVENTS </s> -0.3010
-0.3010 EYECANDY </s> -0.3010
-0.3010 FAIREST </s> -0.3010
-0.3010 FAX </s> -0.3010
-0.3010 FIVE </s> -0.3010
-0.3010 FORTUNE </s> -0.3010
-0.3010 FOUR </s> -0.3010
-0.3010 GAS </s> -0.3010
-0.3010 GO </s> -0.3010
-0.3010 HARDWARE </s> -0.3010
-0.3010 HELLO </s> -0.3010
-0.3010 HELP </s> -0.3010
-0.3010 HIDE </s> -0.3010
-0.3010 HISTORY </s> -0.3010
-0.3010 HOROSCOPE </s> -0.3010
-0.3010 IS </s> -0.3010
-0.3010 JEOPARDY </s> -0.3010
-0.3010 LICE </s> -0.3010
-0.3010 LOTTERY </s> -0.3010
-0.3010 LUCY </s> -0.3010
-0.3010 MIRROR </s> -0.3010
-0.3010 MODULES </s> -0.3010
-0.3010 MOON </s> -0.3010
-0.3010 NASA </s> -0.3010
-0.3010 NEWSFEED </s> -0.3010
-0.3010 NINE </s> -0.3010
-0.3010 OF </s> -0.3010
-0.3010 ON </s> -0.3010
-0.3010 ONE </s> -0.3010
-0.3010 OPEN </s> -0.3010
-0.3010 PAGE </s> -0.3010
-0.3010 PETFINDER </s> -0.3010
-0.3010 PHONE </s> -0.3010
-0.3010 PICTURES </s> -0.3010
-0.3010 PILOTS </s> -0.3010
-0.3010 PLEASE </s> -0.3010
-0.3010 QUOTE </s> -0.3010
-0.3010 SEVEN </s> -0.3010
-0.3010 SHIPPING </s> -0.3010
-0.3010 SHOW </s> -0.3010
-0.3010 SIX </s> -0.3010
-0.3010 SLEEP </s> -0.3010
-0.3010 SOUNDMACHINE </s> -0.3010
-0.3010 STATION </s> -0.3010
-0.3010 STATS </s> -0.3010
-0.3010 SUNRISE </s> -0.3010
-0.3010 TEN </s> -0.3010
-0.3010 THE </s> -0.3010
-0.3010 THREE </s> -0.3010
-0.3010 TIDES </s> -0.3010
-0.3010 TIMER </s> -0.3010
-0.3010 TO </s> -0.3010
-0.3010 TRIVIA </s> -0.3010
-0.3010 TWO </s> -0.3010
-0.3010 UP </s> -0.3010
-0.3010 VOICE </s> -0.3010
-0.3010 WAKE </s> -0.3010
-0.3010 WALL </s> -0.3010
-0.3010 WEATHER </s> -0.3010
-0.3010 WHO </s> -0.3010
-0.3010 WIND </s> -0.3010

\3-grams:
-0.3010 <s> ALARM </s>
-0.3010 <s> ALL </s>
-0.3010 <s> BACKGROUND </s>
-0.3010 <s> CALENDAR </s>
-0.3010 <s> CARDS </s>
-0.3010 <s> CENSUS </s>
-0.3010 <s> CLOCK </s>
-0.3010 <s> CLOSE </s>
-0.3010 <s> COCKTAILS </s>
-0.3010 <s> COMPLIMENTS </s>
-0.3010 <s> EARTH </s>
-0.3010 <s> EIGHT </s>
-0.3010 <s> EVENTS </s>
-0.3010 <s> EYECANDY </s>
-0.3010 <s> FAIREST </s>
-0.3010 <s> FAX </s>
-0.3010 <s> FIVE </s>
-0.3010 <s> FORTUNE </s>
-0.3010 <s> FOUR </s>
-0.3010 <s> GAS </s>
-0.3010 <s> GO </s>
-0.3010 <s> HARDWARE </s>
-0.3010 <s> HELLO </s>
-0.3010 <s> HELP </s>
-0.3010 <s> HIDE </s>
-0.3010 <s> HISTORY </s>
-0.3010 <s> HOROSCOPE </s>
-0.3010 <s> IS </s>
-0.3010 <s> JEOPARDY </s>
-0.3010 <s> LICE </s>
-0.3010 <s> LOTTERY </s>
-0.3010 <s> LUCY </s>
-0.3010 <s> MIRROR </s>
-0.3010 <s> MODULES </s>
-0.3010 <s> MOON </s>
-0.3010 <s> NASA </s>
-0.3010 <s> NEWSFEED </s>
-0.3010 <s> NINE </s>
-0.3010 <s> OF </s>
-0.3010 <s> ON </s>
-0.3010 <s> ONE </s>
-0.3010 <s> OPEN </s>
-0.3010 <s> PAGE </s>
-0.3010 <s> PETFINDER </s>
-0.3010 <s> PHONE </s>
-0.3010 <s> PICTURES </s>
-0.3010 <s> PILOTS </s>
-0.3010 <s> PLEASE </s>
-0.3010 <s> QUOTE </s>
-0.3010 <s> SEVEN </s>
-0.3010 <s> SHIPPING </s>
-0.3010 <s> SHOW </s>
-0.3010 <s> SIX </s>
-0.3010 <s> SLEEP </s>
-0.3010 <s> SOUNDMACHINE </s>
-0.3010 <s> STATION </s>
-0.3010 <s> STATS </s>
-0.3010 <s> SUNRISE </s>
-0.3010 <s> TEN </s>
-0.3010 <s> THE </s>
-0.3010 <s> THREE </s>
-0.3010 <s> TIDES </s>
-0.3010 <s> TIMER </s>
-0.3010 <s> TO </s>
-0.3010 <s> TRIVIA </s>
-0.3010 <s> TWO </s>
-0.3010 <s> UP </s>
-0.3010 <s> VOICE </s>
-0.3010 <s> WAKE </s>
-0.3010 <s> WALL </s>
-0.3010 <s> WEATHER </s>
-0.3010 <s> WHO </s>
-0.3010 <s> WIND </s>

\end\
